{
  "_layers": {
    "Collection": [
      {
        "_neurons": [
          {
            "Alias": "DistanceFromObservedObject",
            "Bias": -0.9925353159161915,
            "Value": 0.75,
            "Weights": []
          },
          {
            "Alias": "AngleToObservedObjectIn6thRadians",
            "Bias": 0.863650001987652,
            "Value": 0.9999999999999998,
            "Weights": []
          }
        ],
        "ActivationType": "LeakyReLU",
        "Param": {
          "_dictonary": {}
        },
        "LayerType": "Input"
      },
      {
        "_neurons": [
          {
            "Alias": null,
            "Bias": -0.2730350751365228,
            "Value": -0.002078503840126839,
            "Weights": [
              1.778297437337517E-05,
              0.06517004714834654
            ]
          },
          {
            "Alias": null,
            "Bias": -1.4217030124056902,
            "Value": -0.004649272577434956,
            "Weights": [
              -0.0022706760829104425,
              0.9583493267761857
            ]
          },
          {
            "Alias": null,
            "Bias": 0.5896171070451719,
            "Value": -0.024683501188345145,
            "Weights": [
              -0.306763303765468,
              -2.827894496698143
            ]
          },
          {
            "Alias": null,
            "Bias": 1.9643310576862687,
            "Value": 0.9871821874085418,
            "Weights": [
              -0.21098233611314587,
              -0.8185213391193629
            ]
          },
          {
            "Alias": null,
            "Bias": -2.0515657091444925E-05,
            "Value": 2.7237483969112546,
            "Weights": [
              -0.36652059555959854,
              2.997464251645775
            ]
          },
          {
            "Alias": null,
            "Bias": 1.4535767251800897,
            "Value": 4.8685874706890235,
            "Weights": [
              3.4056146128660423,
              0.861687709740404
            ]
          },
          {
            "Alias": null,
            "Bias": -1.1218284956969322,
            "Value": -0.012966573520841365,
            "Weights": [
              0.014830232967511155,
              -0.18595465674805636
            ]
          },
          {
            "Alias": null,
            "Bias": -0.6164950698290995,
            "Value": -0.00015721207699182922,
            "Weights": [
              0.0626651484497455,
              0.5537802428200437
            ]
          },
          {
            "Alias": null,
            "Bias": 2.383607040807769,
            "Value": -7.531285311141107E-07,
            "Weights": [
              -2.2034237258613314,
              -0.7311214563863814
            ]
          },
          {
            "Alias": null,
            "Bias": 1.4836786639989294,
            "Value": 0.2865463310220435,
            "Weights": [
              0.21515382161812094,
              -1.3593519501548825
            ]
          },
          {
            "Alias": null,
            "Bias": 2.0272733137390957,
            "Value": 2.726793864114904,
            "Weights": [
              -1.3436121226093565,
              1.7077611770539687
            ]
          },
          {
            "Alias": null,
            "Bias": -1.2275782420183885,
            "Value": -0.0012102206272346795,
            "Weights": [
              -0.24201432409296755,
              1.2880629793245362
            ]
          },
          {
            "Alias": null,
            "Bias": -1.0741066782868531,
            "Value": -0.0065499398281257774,
            "Weights": [
              -0.02008871634235143,
              0.4341765099813373
            ]
          },
          {
            "Alias": null,
            "Bias": 2.2809828150205575E-05,
            "Value": 2.5031214357225293,
            "Weights": [
              0.015624436673544899,
              2.4904313008760455
            ]
          },
          {
            "Alias": null,
            "Bias": -1.4703278535193003,
            "Value": -0.005836039756640738,
            "Weights": [
              0.001742361257964899,
              0.8854178304740737
            ]
          },
          {
            "Alias": null,
            "Bias": -1.287692364476135,
            "Value": -0.020775224084838437,
            "Weights": [
              -0.010825359477879134,
              -0.7817109026374717
            ]
          }
        ],
        "ActivationType": "Sigmoid",
        "Param": {
          "_dictonary": {}
        },
        "LayerType": "Intermediate"
      },
      {
        "_neurons": [
          {
            "Alias": "TransitionToObservedObject",
            "Bias": -0.5865225366253977,
            "Value": 0.011488253577000314,
            "Weights": [
              -0.0006113645813232881,
              -1.6526347392062855,
              -2.9702747727017753,
              -0.8266606944653075,
              -0.1549331765181053,
              1.8141788611228744,
              1.215472885869406,
              1.9090044315667403,
              -0.7729596981722044,
              1.0026918942489391,
              -2.183296011072974,
              1.5311958561686507,
              -0.43496621028575205,
              -2.350631603407726,
              -1.5917568968835294,
              -0.5743517373723467
            ]
          },
          {
            "Alias": "TransitionFromObservedObject",
            "Bias": -1.1777105411410846,
            "Value": 0.12480232530174987,
            "Weights": [
              -0.0007208725106294108,
              -1.95746339684705,
              -0.05974407053605657,
              -1.1108045855584845,
              3.422782843539502,
              -2.5592458519747567,
              0.8748813098492245,
              -1.5190215489042367,
              1.981851108164593,
              2.435929057998809,
              -1.500776200939013,
              1.1133873931349862,
              0.7794143131997313,
              2.739248763849287,
              -0.19561785482868568,
              -0.04266360418726617
            ]
          },
          {
            "Alias": "SpeedAdjust",
            "Bias": -0.5545658462469307,
            "Value": 0.00038392142366207755,
            "Weights": [
              -0.0018790398860312127,
              0.5942237686822389,
              -0.22251997925982023,
              0.9569615068061378,
              0.33461089836689506,
              -2.5877443360709456,
              -1.6093798631306007,
              -1.3777731935050124,
              2.313922670344651,
              -1.0857963769414956,
              1.5183380029514058,
              -1.7843460567528175,
              1.3642291183002986,
              -0.16249462507000575,
              -1.9267812714095174,
              0.874111316216625
            ]
          }
        ],
        "ActivationType": "None",
        "Param": {
          "_dictonary": {}
        },
        "LayerType": "Output"
      }
    ],
    "Count": 3
  },
  "Fitness": 0.0,
  "LearningRate": 0.01,
  "Cost": 0.007853873883316398
}