{
  "_layers": {
    "Collection": [
      {
        "_neurons": [
          {
            "Alias": "DistanceFromObservedObject",
            "Bias": 1.4292505939627302,
            "Value": 0.75,
            "Weights": []
          },
          {
            "Alias": "AngleToObservedObjectIn6thRadians",
            "Bias": 1.3843083676809018,
            "Value": 0.4,
            "Weights": []
          }
        ],
        "ActivationType": "LeakyReLU",
        "Param": {
          "_dictonary": {}
        },
        "LayerType": "Input"
      },
      {
        "_neurons": [
          {
            "Alias": null,
            "Bias": -1.3603100707853413,
            "Value": -0.010062458514553365,
            "Weights": [
              3.0065606016504317E-05,
              0.8851706566168407
            ]
          },
          {
            "Alias": null,
            "Bias": -0.012479354678068459,
            "Value": 1.6156154872165442,
            "Weights": [
              0.01672635278674692,
              4.037968266701552
            ]
          },
          {
            "Alias": null,
            "Bias": 0.22330205329146322,
            "Value": 0.6794038118493096,
            "Weights": [
              0.9056251449037446,
              -0.5577949746606833
            ]
          },
          {
            "Alias": null,
            "Bias": -1.9010248156069218,
            "Value": -0.011570676683181583,
            "Weights": [
              -0.01524330358972919,
              1.888474229477807
            ]
          },
          {
            "Alias": null,
            "Bias": 1.2507597041106524,
            "Value": -0.00018131991645700766,
            "Weights": [
              -0.9629315894630838,
              -1.366734872293275
            ]
          },
          {
            "Alias": null,
            "Bias": 2.204603330892628,
            "Value": 2.1996246757681064,
            "Weights": [
              -0.7565728901691428,
              1.406201529733392
            ]
          },
          {
            "Alias": null,
            "Bias": -0.7123306061731903,
            "Value": -0.0006252570631634361,
            "Weights": [
              -0.12491977071400262,
              1.8587378544280764
            ]
          },
          {
            "Alias": null,
            "Bias": 0.27755822898436566,
            "Value": 0.7846213511533632,
            "Weights": [
              0.6637774397515643,
              0.02328655561764341
            ]
          },
          {
            "Alias": null,
            "Bias": 1.9623223485916186,
            "Value": 0.8884831511531397,
            "Weights": [
              -0.9833462289948394,
              -0.8408613520217987
            ]
          },
          {
            "Alias": null,
            "Bias": 1.1361856174261957,
            "Value": 2.535424187079843,
            "Weights": [
              2.249856126189215,
              -0.7201738579798903
            ]
          },
          {
            "Alias": null,
            "Bias": -0.7271617372770296,
            "Value": -0.0009598719273786751,
            "Weights": [
              0.003961987309522656,
              1.570510297127381
            ]
          },
          {
            "Alias": null,
            "Bias": 1.5407776419569585,
            "Value": 0.12461172352405736,
            "Weights": [
              -1.3313917413430891,
              -1.0445737341007055
            ]
          },
          {
            "Alias": null,
            "Bias": -0.4406931803797724,
            "Value": -0.00728592967889041,
            "Weights": [
              0.0009006039765412,
              -0.7214391559056024
            ]
          },
          {
            "Alias": null,
            "Bias": -1.3191264594254433,
            "Value": -0.009227157007767654,
            "Weights": [
              -0.011366627963573753,
              1.0123383197424398
            ]
          },
          {
            "Alias": null,
            "Bias": 0.1897272266417579,
            "Value": 0.8391891918633653,
            "Weights": [
              1.1188856559220142,
              -0.4742848520308244
            ]
          },
          {
            "Alias": null,
            "Bias": 0.817763328672189,
            "Value": 2.8117787293774765,
            "Weights": [
              1.7679863059864058,
              1.6705253596432856
            ]
          }
        ],
        "ActivationType": "Sigmoid",
        "Param": {
          "_dictonary": {}
        },
        "LayerType": "Intermediate"
      },
      {
        "_neurons": [
          {
            "Alias": "TransitionToObservedObject",
            "Bias": 0.12750693789101528,
            "Value": 0.5890072404832823,
            "Weights": [
              0.005012493199519438,
              -2.717544806479236,
              0.9555972755192504,
              -1.4791321517925324,
              -2.829535746448513,
              -0.6750905933670619,
              -0.40901382241714634,
              0.559445838623017,
              -1.9698961375361628,
              1.4013793788355209,
              1.8621746482097297,
              -1.3901970879273111,
              1.681762456096996,
              1.1629695856613382,
              1.0010835217440233,
              0.9095565111136351
            ]
          },
          {
            "Alias": "TransitionFromObservedObject",
            "Bias": 1.8230591965015321,
            "Value": 0.06085492882569296,
            "Weights": [
              -0.002827124977632423,
              3.3956104877619224,
              0.7462563172228389,
              -1.2871069787085954,
              -0.5878904043557253,
              -1.0111688209530887,
              -1.0068958610270666,
              -0.9838716873633346,
              -1.2572891268262756,
              -0.3286808234306295,
              -0.35691360296513996,
              2.3973752324333764,
              1.9637801277060205,
              1.5253219603446206,
              0.9614396706102126,
              -2.3828327527415927
            ]
          },
          {
            "Alias": "SpeedAdjust",
            "Bias": -0.39155327453815997,
            "Value": 0.0012350600936596964,
            "Weights": [
              -0.00264225517733218,
              0.07843083704663432,
              -1.1392802698635083,
              1.555096784717037,
              0.2183448561176658,
              1.2599330447200707,
              1.7191898159671097,
              0.20173282121022748,
              1.5803472701388623,
              -2.1166374702814257,
              1.7287805826384701,
              1.3940683232414204,
              0.01980902218099532,
              1.4827957081126881,
              -1.7720437124205526,
              -1.1650282176415734
            ]
          }
        ],
        "ActivationType": "None",
        "Param": {
          "_dictonary": {}
        },
        "LayerType": "Output"
      }
    ],
    "Count": 3
  },
  "Fitness": 0.0,
  "LearningRate": 0.01,
  "Cost": 0.0019128442488037464
}