{
  "_layers": {
    "Collection": [
      {
        "_neurons": [
          {
            "Alias": "DistanceFromObservedObject",
            "Bias": -0.7033627558049572,
            "Value": 0.75,
            "Weights": []
          },
          {
            "Alias": "AngleToObservedObjectIn6thRadians",
            "Bias": -1.9086216166189973,
            "Value": 0.9999999999999998,
            "Weights": []
          }
        ],
        "ActivationType": "LeakyReLU",
        "Param": {
          "_dictonary": {}
        },
        "LayerType": "Input"
      },
      {
        "_neurons": [
          {
            "Alias": null,
            "Bias": -3.113285761663739E-05,
            "Value": 2.334520104736523,
            "Weights": [
              0.00019523254487093842,
              2.3338730798229297
            ]
          },
          {
            "Alias": null,
            "Bias": 1.8506313910467653,
            "Value": 1.7792560399903175,
            "Weights": [
              -1.610927705275538,
              1.136968923606385
            ]
          },
          {
            "Alias": null,
            "Bias": 1.3115874296325793,
            "Value": 4.038624786568698,
            "Weights": [
              3.0368760952882234,
              0.4503375622994604
            ]
          },
          {
            "Alias": null,
            "Bias": 1.580629740249257,
            "Value": 1.8569922561852619,
            "Weights": [
              0.02582172080283403,
              0.2569501781001117
            ]
          },
          {
            "Alias": null,
            "Bias": -0.6967020486912189,
            "Value": -0.030193186878203635,
            "Weights": [
              -1.1103472895469855,
              -1.48986635000909
            ]
          },
          {
            "Alias": null,
            "Bias": -0.6482983109373942,
            "Value": -0.006354280658155459,
            "Weights": [
              1.1880741807531683,
              -0.8781754935051479
            ]
          },
          {
            "Alias": null,
            "Bias": -0.00014829451234124,
            "Value": -0.026369017143388334,
            "Weights": [
              0.12833404641973065,
              -2.7330149480599224
            ]
          },
          {
            "Alias": null,
            "Bias": -0.09055405199564592,
            "Value": -0.002001545726869263,
            "Weights": [
              -0.029827619710202286,
              -0.08722307912458595
            ]
          },
          {
            "Alias": null,
            "Bias": 2.190265843845191,
            "Value": -0.006122755174383412,
            "Weights": [
              -2.1050159040979364,
              -1.2237747303809912
            ]
          },
          {
            "Alias": null,
            "Bias": 1.649027529410099,
            "Value": 0.24217205840684808,
            "Weights": [
              -0.8126777158347555,
              -0.7981438055094934
            ]
          },
          {
            "Alias": null,
            "Bias": -1.06247301099129,
            "Value": -0.0004259977610943611,
            "Weights": [
              -0.05088748465871545,
              1.0580434415769393
            ]
          },
          {
            "Alias": null,
            "Bias": 0.8063838348803517,
            "Value": 1.0385344815318664,
            "Weights": [
              1.2104553053632503,
              -0.6752895813143738
            ]
          },
          {
            "Alias": null,
            "Bias": -0.0001285499722620433,
            "Value": -0.0219422256338849,
            "Weights": [
              -0.7977161586306681,
              -1.5958136047570093
            ]
          },
          {
            "Alias": null,
            "Bias": -1.1184721170437706,
            "Value": -0.014004540023953108,
            "Weights": [
              1.4911673065122633,
              -1.4003462771963462
            ]
          },
          {
            "Alias": null,
            "Bias": -1.4440288054494639,
            "Value": -0.0015200676719365946,
            "Weights": [
              0.020853145456639265,
              1.2763946983109633
            ]
          },
          {
            "Alias": null,
            "Bias": 0.12258009092400635,
            "Value": 1.0766447410261974,
            "Weights": [
              -1.2993311637812117,
              1.9265454655241332
            ]
          }
        ],
        "ActivationType": "Sigmoid",
        "Param": {
          "_dictonary": {}
        },
        "LayerType": "Intermediate"
      },
      {
        "_neurons": [
          {
            "Alias": "TransitionToObservedObject",
            "Bias": -1.6673972968325939,
            "Value": 0.03305170979304747,
            "Weights": [
              -1.8963015533875327,
              -2.8000762015891283,
              0.4615213961587984,
              1.8453756161698742,
              0.6822895002940943,
              0.18746516054795978,
              -2.4002692625680013,
              1.1663601658711593,
              -2.138791928325623,
              1.2535962202440192,
              0.6962643213477941,
              0.9861979751330433,
              0.8252172043540629,
              -0.5717744034232446,
              -1.6331077904299693,
              0.9632830469562765
            ]
          },
          {
            "Alias": "TransitionFromObservedObject",
            "Bias": 0.49786009848949503,
            "Value": 0.1744021819490852,
            "Weights": [
              0.889658244066828,
              -0.5033086127613507,
              -1.506896414725239,
              -0.0061365402947539316,
              1.5424966419866035,
              -1.5481935580842852,
              1.800300809748976,
              -1.0952703018821637,
              -0.6431901414969996,
              1.1852419743573575,
              -0.7433806828726126,
              -0.6649552481335761,
              1.0004747715814504,
              -1.7038828387444356,
              -1.8773394056882542,
              3.0948109192994795
            ]
          },
          {
            "Alias": "SpeedAdjust",
            "Bias": -0.09582493272415592,
            "Value": 0.0013952775461226977,
            "Weights": [
              0.40890214923333074,
              1.0363610251103443,
              -2.5763304862066465,
              0.9132260377616288,
              0.37591281555728095,
              0.921664549278729,
              -0.8523824268038992,
              1.8007303668749506,
              2.455431729563695,
              0.1514425857722321,
              1.8094839817827764,
              -1.1807079643191296,
              0.05502876356050431,
              -0.8019943942114315,
              -0.3222468428391094,
              0.581576413565374
            ]
          }
        ],
        "ActivationType": "None",
        "Param": {
          "_dictonary": {}
        },
        "LayerType": "Output"
      }
    ],
    "Count": 3
  },
  "Fitness": 0.0,
  "LearningRate": 0.01,
  "Cost": 0.01575524169413817
}