{
  "_layers": {
    "Collection": [
      {
        "_neurons": [
          {
            "Alias": "DistanceFromObservedObject",
            "Bias": -0.2565212185757799,
            "Value": 0.75,
            "Weights": []
          },
          {
            "Alias": "AngleToObservedObjectIn6thRadians",
            "Bias": -1.1288482412364558,
            "Value": -0.5,
            "Weights": []
          }
        ],
        "ActivationType": "LeakyReLU",
        "Param": {
          "_dictonary": {}
        },
        "LayerType": "Input"
      },
      {
        "_neurons": [
          {
            "Alias": null,
            "Bias": 0.9629790181836063,
            "Value": 0.8363307390397275,
            "Weights": [
              0.09074538369827821,
              0.3894133139797185
            ]
          },
          {
            "Alias": null,
            "Bias": 2.7487505925676765,
            "Value": 0.6629238546830525,
            "Weights": [
              -2.8352138898666017,
              -0.08114579556099191
            ]
          },
          {
            "Alias": null,
            "Bias": -1.5051323052407115,
            "Value": -0.007840095772905653,
            "Weights": [
              -0.05027614026237611,
              -1.5176595468009983
            ]
          },
          {
            "Alias": null,
            "Bias": 2.0058367744290604,
            "Value": 1.685896482652852,
            "Weights": [
              0.140608725472408,
              0.8507910494545537
            ]
          },
          {
            "Alias": null,
            "Bias": 0.40126933601568715,
            "Value": 2.7490553106105318,
            "Weights": [
              2.9364421747793887,
              -0.29091546247070493
            ]
          },
          {
            "Alias": null,
            "Bias": 1.5378636002221406,
            "Value": 1.9244137825965288,
            "Weights": [
              -0.10281316307135825,
              -0.9273216062337541
            ]
          },
          {
            "Alias": null,
            "Bias": 0.1788912735762182,
            "Value": 0.9768431962509553,
            "Weights": [
              1.5490965814731035,
              0.7277283964256427
            ]
          },
          {
            "Alias": null,
            "Bias": -0.5219037529163247,
            "Value": -0.01297374896400129,
            "Weights": [
              -0.5880258058181527,
              0.6689036913413305
            ]
          },
          {
            "Alias": null,
            "Bias": 1.4086377193095916,
            "Value": 0.4624880872360416,
            "Weights": [
              -0.289729253451643,
              1.4577122966133937
            ]
          },
          {
            "Alias": null,
            "Bias": -1.8381723689802902,
            "Value": -0.01882720056099169,
            "Weights": [
              -0.020869946301489462,
              0.057790621987972614
            ]
          },
          {
            "Alias": null,
            "Bias": -0.967562244166858,
            "Value": -0.005562936992767716,
            "Weights": [
              -0.11600817604120837,
              -0.9965493732934324
            ]
          },
          {
            "Alias": null,
            "Bias": -0.16836336823062933,
            "Value": 1.2568233048030493,
            "Weights": [
              1.9093729725536743,
              0.0136738052694228
            ]
          },
          {
            "Alias": null,
            "Bias": -1.8066330723121824,
            "Value": -0.006327730950819712,
            "Weights": [
              0.43287152533147316,
              -1.698412679165618
            ]
          },
          {
            "Alias": null,
            "Bias": -1.303763561333323,
            "Value": -0.010614181568224426,
            "Weights": [
              -0.009514045060124567,
              -0.4989618249145782
            ]
          },
          {
            "Alias": null,
            "Bias": -1.9788172568454148,
            "Value": -0.024002243912297848,
            "Weights": [
              0.0010920116247381986,
              0.8444523962051191
            ]
          },
          {
            "Alias": null,
            "Bias": -1.2084669775312842,
            "Value": -0.013870918970755304,
            "Weights": [
              0.006831360750821564,
              0.367496941832401
            ]
          }
        ],
        "ActivationType": "Sigmoid",
        "Param": {
          "_dictonary": {}
        },
        "LayerType": "Intermediate"
      },
      {
        "_neurons": [
          {
            "Alias": "TransitionToObservedObject",
            "Bias": 1.1002347157803525,
            "Value": 0.9931528212544409,
            "Weights": [
              -0.26226122478275193,
              -2.7417728749832437,
              1.4939230602802298,
              -1.8154909168401239,
              2.514379583727403,
              -0.3994518754186333,
              1.5420914162994601,
              -0.48003028885021604,
              0.511795571836253,
              -0.3460387211034481,
              -0.007798130591896855,
              0.9089467006385237,
              1.571781828862017,
              0.21555990922927998,
              0.7754482964584131,
              1.779002356558721
            ]
          },
          {
            "Alias": "TransitionFromObservedObject",
            "Bias": 1.9348533944854762,
            "Value": 0.011739435408311136,
            "Weights": [
              -0.17076673250851213,
              2.8398209409360113,
              1.0340291787709261,
              -1.1442412053062139,
              -0.45624621099416196,
              -0.452220338587407,
              -2.0324022321458757,
              0.9185483861990001,
              1.57259947943777,
              1.5609800434317833,
              -0.9319288623757402,
              -2.1776473187812684,
              -0.2999485142043855,
              0.1255536659201907,
              0.3074908594516925,
              0.581755243240941
            ]
          },
          {
            "Alias": "SpeedAdjust",
            "Bias": -0.6049182548210575,
            "Value": 0.0016931857976334114,
            "Weights": [
              0.11398790629844839,
              1.8424420220419495,
              1.3196357713364464,
              -0.3606771220730903,
              -2.6880274442036534,
              0.593294339775611,
              0.06442974115846536,
              1.5918038885120076,
              0.11941136193967018,
              0.12531394354716965,
              1.502798853420133,
              -0.21174931115764103,
              0.336781416643719,
              1.626996355476211,
              0.5865065109160915,
              0.882613017260951
            ]
          }
        ],
        "ActivationType": "None",
        "Param": {
          "_dictonary": {}
        },
        "LayerType": "Output"
      }
    ],
    "Count": 3
  },
  "Fitness": 0.0,
  "LearningRate": 0.01,
  "Cost": 9.378253931242629E-05
}