{
  "_layers": {
    "Collection": [
      {
        "_neurons": [
          {
            "Alias": "DistanceFromObject",
            "Bias": 1.0839715921711044,
            "Value": 1.0,
            "Weights": []
          },
          {
            "Alias": "AngleToObject",
            "Bias": -1.4173249087377102,
            "Value": 0.9999999999999998,
            "Weights": []
          }
        ],
        "ActivationType": "LeakyReLU",
        "Param": {
          "_dictonary": {}
        },
        "LayerType": "Input"
      },
      {
        "_neurons": [
          {
            "Alias": null,
            "Bias": 0.7891543598973682,
            "Value": 2.7748378252290284,
            "Weights": [
              0.31167418941699554,
              1.674009282514948
            ]
          },
          {
            "Alias": null,
            "Bias": 1.393687129945657,
            "Value": 3.1395997230861425,
            "Weights": [
              0.5199029349509375,
              1.226009652132092
            ]
          },
          {
            "Alias": null,
            "Bias": -1.6554716091595851,
            "Value": -0.01975393153374514,
            "Weights": [
              -0.00983661568421732,
              -0.31008497267050694
            ]
          },
          {
            "Alias": null,
            "Bias": -0.812540505512462,
            "Value": -0.0032698596477028176,
            "Weights": [
              -0.010925022884089454,
              0.49647955633448826
            ]
          },
          {
            "Alias": null,
            "Bias": 0.8475014803046622,
            "Value": -0.002246010233956826,
            "Weights": [
              -0.7825977006616164,
              -0.2895048081838232
            ]
          },
          {
            "Alias": null,
            "Bias": 1.7720568473199858,
            "Value": -0.005816187081051464,
            "Weights": [
              -2.2040916854881982,
              -0.1495838832124121
            ]
          },
          {
            "Alias": null,
            "Bias": 2.093015471813081,
            "Value": -0.007641396613281647,
            "Weights": [
              -2.476391639675938,
              -0.3807635108281872
            ]
          },
          {
            "Alias": null,
            "Bias": 1.880736352206388,
            "Value": 0.5278193363807122,
            "Weights": [
              0.2264972045097667,
              -1.579414213076077
            ]
          },
          {
            "Alias": null,
            "Bias": -1.7743319502816082,
            "Value": -0.026413845999375983,
            "Weights": [
              -0.023929857593092862,
              -0.8431228511409525
            ]
          },
          {
            "Alias": null,
            "Bias": -0.8643962323084979,
            "Value": -0.0002857329211522034,
            "Weights": [
              -0.5408597996274266,
              1.3766827391200125
            ]
          },
          {
            "Alias": null,
            "Bias": 0.47955495188508723,
            "Value": 3.2877335673123897,
            "Weights": [
              2.48766662491252,
              0.32051201291550013
            ]
          },
          {
            "Alias": null,
            "Bias": 0.6902530425621152,
            "Value": 1.8820535319470544,
            "Weights": [
              2.16411137172685,
              -0.9723108795713072
            ]
          },
          {
            "Alias": null,
            "Bias": -0.4314438880293145,
            "Value": -0.019778529349737055,
            "Weights": [
              -0.1328619874734454,
              -1.4135471036974931
            ]
          },
          {
            "Alias": null,
            "Bias": -0.5112079834545594,
            "Value": -0.024165815736954175,
            "Weights": [
              -0.11302229518717417,
              -1.7923513490437237
            ]
          },
          {
            "Alias": null,
            "Bias": 2.1603761910073778,
            "Value": 0.7079841574724808,
            "Weights": [
              -2.167677768045857,
              0.7152857115747858
            ]
          },
          {
            "Alias": null,
            "Bias": -0.5300144899632211,
            "Value": -0.014683290854263576,
            "Weights": [
              0.34928026373538634,
              -1.2875948919832987
            ]
          }
        ],
        "ActivationType": "Sigmoid",
        "Param": {
          "_dictonary": {}
        },
        "LayerType": "Intermediate"
      },
      {
        "_neurons": [
          {
            "Alias": "TransitionToObservedObject",
            "Bias": 1.0670304070538983,
            "Value": 0.9999072042098944,
            "Weights": [
              0.3676883762524643,
              -0.14806629498024407,
              -0.1955259185528583,
              -1.4570112619963953,
              -1.1218553549633152,
              -1.487922049622466,
              -1.6041774611480812,
              -1.4689795962766148,
              -1.788913612529329,
              -0.9088051485514052,
              1.6975460705168879,
              2.39394026219371,
              0.44065735380386056,
              -0.5158302973600384,
              -2.4253936282261233,
              1.011192972173104
            ]
          },
          {
            "Alias": "TransitionFromObservedObject",
            "Bias": -1.166850726663531,
            "Value": 0.00037608942601688493,
            "Weights": [
              -0.579742679981004,
              0.23005059327918795,
              -0.16473154072587376,
              -0.24862742056834727,
              1.1091161887008452,
              2.5044499164517133,
              2.569798898843848,
              -0.7735529966925718,
              0.2531139218335401,
              0.5293669514172159,
              -2.0081144774852295,
              -0.11417066506005635,
              0.19704623847465425,
              -0.2648806710889975,
              2.0146156996188505,
              -0.2676255290998409
            ]
          },
          {
            "Alias": "SpeedAdjust",
            "Bias": 1.8162938253098604,
            "Value": 9.812642942377171E-06,
            "Weights": [
              0.021404505036228885,
              -1.7208374073440162,
              1.594077840079472,
              0.4396339070231662,
              0.1703477483379539,
              1.3826831092220189,
              2.214006806740813,
              -0.6972395858424737,
              1.5797249353425404,
              0.34228431101687795,
              -1.3760031334468943,
              -1.9352128487513565,
              0.5362741343398842,
              -0.15784993852565174,
              0.8905690838248066,
              -0.3897864748920515
            ]
          }
        ],
        "ActivationType": "None",
        "Param": {
          "_dictonary": {}
        },
        "LayerType": "Output"
      }
    ],
    "Count": 3
  },
  "Fitness": 0.0,
  "LearningRate": 0.025,
  "Cost": 7.507530149227087E-08
}